digraph Tree {
node [shape=box] ;
0 [label="X[3] <= 1.5\ngini = 0.391\nsamples = 4922\nvalue = [3610, 1312]"] ;
1 [label="X[18] <= 0.5\ngini = 0.491\nsamples = 2702\nvalue = [1532, 1170]"] ;
0 -> 1 [labeldistance=2.5, labelangle=45, headlabel="True"] ;
2 [label="X[5] <= 91.425\ngini = 0.375\nsamples = 852\nvalue = [639, 213]"] ;
1 -> 2 ;
3 [label="X[1] <= 3.5\ngini = 0.344\nsamples = 726\nvalue = [566, 160]"] ;
2 -> 3 ;
4 [label="X[0] <= 0.5\ngini = 0.435\nsamples = 222\nvalue = [151, 71]"] ;
3 -> 4 ;
5 [label="X[36] <= 0.5\ngini = 0.417\nsamples = 213\nvalue = [150, 63]"] ;
4 -> 5 ;
6 [label="X[6] <= 20.325\ngini = 0.478\nsamples = 76\nvalue = [46, 30]"] ;
5 -> 6 ;
7 [label="X[5] <= 20.075\ngini = 0.49\nsamples = 28\nvalue = [12, 16]"] ;
6 -> 7 ;
8 [label="X[4] <= 1.5\ngini = 0.48\nsamples = 15\nvalue = [9, 6]"] ;
7 -> 8 ;
9 [label="gini = 0.0\nsamples = 2\nvalue = [0, 2]"] ;
8 -> 9 ;
10 [label="X[6] <= 18.925\ngini = 0.426\nsamples = 13\nvalue = [9, 4]"] ;
8 -> 10 ;
11 [label="gini = 0.0\nsamples = 1\nvalue = [0, 1]"] ;
10 -> 11 ;
12 [label="gini = 0.375\nsamples = 12\nvalue = [9, 3]"] ;
10 -> 12 ;
13 [label="X[12] <= 0.5\ngini = 0.355\nsamples = 13\nvalue = [3, 10]"] ;
7 -> 13 ;
14 [label="X[9] <= 0.5\ngini = 0.18\nsamples = 10\nvalue = [1, 9]"] ;
13 -> 14 ;
15 [label="gini = 0.0\nsamples = 1\nvalue = [1, 0]"] ;
14 -> 15 ;
16 [label="gini = 0.0\nsamples = 9\nvalue = [0, 9]"] ;
14 -> 16 ;
17 [label="X[7] <= 0.5\ngini = 0.444\nsamples = 3\nvalue = [2, 1]"] ;
13 -> 17 ;
18 [label="gini = 0.0\nsamples = 2\nvalue = [2, 0]"] ;
17 -> 18 ;
19 [label="gini = 0.0\nsamples = 1\nvalue = [0, 1]"] ;
17 -> 19 ;
20 [label="X[4] <= 1.5\ngini = 0.413\nsamples = 48\nvalue = [34, 14]"] ;
6 -> 20 ;
21 [label="X[1] <= 2.5\ngini = 0.5\nsamples = 12\nvalue = [6, 6]"] ;
20 -> 21 ;
22 [label="X[2] <= 1.5\ngini = 0.444\nsamples = 9\nvalue = [3, 6]"] ;
21 -> 22 ;
23 [label="gini = 0.0\nsamples = 4\nvalue = [0, 4]"] ;
22 -> 23 ;
24 [label="gini = 0.48\nsamples = 5\nvalue = [3, 2]"] ;
22 -> 24 ;
25 [label="gini = 0.0\nsamples = 3\nvalue = [3, 0]"] ;
21 -> 25 ;
26 [label="X[26] <= 0.5\ngini = 0.346\nsamples = 36\nvalue = [28, 8]"] ;
20 -> 26 ;
27 [label="X[4] <= 3.5\ngini = 0.32\nsamples = 35\nvalue = [28, 7]"] ;
26 -> 27 ;
28 [label="gini = 0.271\nsamples = 31\nvalue = [26, 5]"] ;
27 -> 28 ;
29 [label="gini = 0.5\nsamples = 4\nvalue = [2, 2]"] ;
27 -> 29 ;
30 [label="gini = 0.0\nsamples = 1\nvalue = [0, 1]"] ;
26 -> 30 ;
31 [label="X[6] <= 63.675\ngini = 0.366\nsamples = 137\nvalue = [104, 33]"] ;
5 -> 31 ;
32 [label="X[6] <= 33.45\ngini = 0.339\nsamples = 125\nvalue = [98, 27]"] ;
31 -> 32 ;
33 [label="X[6] <= 30.2\ngini = 0.418\nsamples = 84\nvalue = [59, 25]"] ;
32 -> 33 ;
34 [label="X[5] <= 19.225\ngini = 0.404\nsamples = 82\nvalue = [59, 23]"] ;
33 -> 34 ;
35 [label="gini = 0.0\nsamples = 9\nvalue = [9, 0]"] ;
34 -> 35 ;
36 [label="gini = 0.432\nsamples = 73\nvalue = [50, 23]"] ;
34 -> 36 ;
37 [label="gini = 0.0\nsamples = 2\nvalue = [0, 2]"] ;
33 -> 37 ;
38 [label="X[5] <= 50.375\ngini = 0.093\nsamples = 41\nvalue = [39, 2]"] ;
32 -> 38 ;
39 [label="X[6] <= 58.425\ngini = 0.053\nsamples = 37\nvalue = [36, 1]"] ;
38 -> 39 ;
40 [label="gini = 0.0\nsamples = 32\nvalue = [32, 0]"] ;
39 -> 40 ;
41 [label="gini = 0.32\nsamples = 5\nvalue = [4, 1]"] ;
39 -> 41 ;
42 [label="X[5] <= 50.9\ngini = 0.375\nsamples = 4\nvalue = [3, 1]"] ;
38 -> 42 ;
43 [label="gini = 0.0\nsamples = 1\nvalue = [0, 1]"] ;
42 -> 43 ;
44 [label="gini = 0.0\nsamples = 3\nvalue = [3, 0]"] ;
42 -> 44 ;
45 [label="X[6] <= 96.4\ngini = 0.5\nsamples = 12\nvalue = [6, 6]"] ;
31 -> 45 ;
46 [label="X[4] <= 1.5\ngini = 0.32\nsamples = 5\nvalue = [1, 4]"] ;
45 -> 46 ;
47 [label="gini = 0.0\nsamples = 1\nvalue = [1, 0]"] ;
46 -> 47 ;
48 [label="gini = 0.0\nsamples = 4\nvalue = [0, 4]"] ;
46 -> 48 ;
49 [label="X[5] <= 58.825\ngini = 0.408\nsamples = 7\nvalue = [5, 2]"] ;
45 -> 49 ;
50 [label="X[5] <= 53.15\ngini = 0.5\nsamples = 4\nvalue = [2, 2]"] ;
49 -> 50 ;
51 [label="gini = 0.0\nsamples = 2\nvalue = [2, 0]"] ;
50 -> 51 ;
52 [label="gini = 0.0\nsamples = 2\nvalue = [0, 2]"] ;
50 -> 52 ;
53 [label="gini = 0.0\nsamples = 3\nvalue = [3, 0]"] ;
49 -> 53 ;
54 [label="X[5] <= 19.325\ngini = 0.198\nsamples = 9\nvalue = [1, 8]"] ;
4 -> 54 ;
55 [label="gini = 0.0\nsamples = 1\nvalue = [1, 0]"] ;
54 -> 55 ;
56 [label="gini = 0.0\nsamples = 8\nvalue = [0, 8]"] ;
54 -> 56 ;
57 [label="X[21] <= 0.5\ngini = 0.291\nsamples = 504\nvalue = [415, 89]"] ;
3 -> 57 ;
58 [label="X[6] <= 411.45\ngini = 0.211\nsamples = 301\nvalue = [265, 36]"] ;
57 -> 58 ;
59 [label="X[5] <= 55.8\ngini = 0.282\nsamples = 153\nvalue = [127, 26]"] ;
58 -> 59 ;
60 [label="X[6] <= 397.225\ngini = 0.263\nsamples = 148\nvalue = [125, 23]"] ;
59 -> 60 ;
61 [label="X[29] <= 0.5\ngini = 0.248\nsamples = 145\nvalue = [124, 21]"] ;
60 -> 61 ;
62 [label="X[5] <= 19.425\ngini = 0.239\nsamples = 144\nvalue = [124, 20]"] ;
61 -> 62 ;
63 [label="gini = 0.413\nsamples = 24\nvalue = [17, 7]"] ;
62 -> 63 ;
64 [label="gini = 0.193\nsamples = 120\nvalue = [107, 13]"] ;
62 -> 64 ;
65 [label="gini = 0.0\nsamples = 1\nvalue = [0, 1]"] ;
61 -> 65 ;
66 [label="X[17] <= 0.5\ngini = 0.444\nsamples = 3\nvalue = [1, 2]"] ;
60 -> 66 ;
67 [label="gini = 0.0\nsamples = 1\nvalue = [1, 0]"] ;
66 -> 67 ;
68 [label="gini = 0.0\nsamples = 2\nvalue = [0, 2]"] ;
66 -> 68 ;
69 [label="X[15] <= 0.5\ngini = 0.48\nsamples = 5\nvalue = [2, 3]"] ;
59 -> 69 ;
70 [label="gini = 0.0\nsamples = 2\nvalue = [2, 0]"] ;
69 -> 70 ;
71 [label="gini = 0.0\nsamples = 3\nvalue = [0, 3]"] ;
69 -> 71 ;
72 [label="X[6] <= 1410.15\ngini = 0.126\nsamples = 148\nvalue = [138, 10]"] ;
58 -> 72 ;
73 [label="X[5] <= 19.575\ngini = 0.025\nsamples = 79\nvalue = [78, 1]"] ;
72 -> 73 ;
74 [label="X[5] <= 19.525\ngini = 0.124\nsamples = 15\nvalue = [14, 1]"] ;
73 -> 74 ;
75 [label="gini = 0.0\nsamples = 13\nvalue = [13, 0]"] ;
74 -> 75 ;
76 [label="X[4] <= 2.5\ngini = 0.5\nsamples = 2\nvalue = [1, 1]"] ;
74 -> 76 ;
77 [label="gini = 0.0\nsamples = 1\nvalue = [0, 1]"] ;
76 -> 77 ;
78 [label="gini = 0.0\nsamples = 1\nvalue = [1, 0]"] ;
76 -> 78 ;
79 [label="gini = 0.0\nsamples = 64\nvalue = [64, 0]"] ;
73 -> 79 ;
80 [label="X[6] <= 2356.75\ngini = 0.227\nsamples = 69\nvalue = [60, 9]"] ;
72 -> 80 ;
81 [label="X[6] <= 2229.7\ngini = 0.361\nsamples = 38\nvalue = [29, 9]"] ;
80 -> 81 ;
82 [label="X[6] <= 1506.475\ngini = 0.313\nsamples = 36\nvalue = [29, 7]"] ;
81 -> 82 ;
83 [label="gini = 0.5\nsamples = 6\nvalue = [3, 3]"] ;
82 -> 83 ;
84 [label="gini = 0.231\nsamples = 30\nvalue = [26, 4]"] ;
82 -> 84 ;
85 [label="gini = 0.0\nsamples = 2\nvalue = [0, 2]"] ;
81 -> 85 ;
86 [label="gini = 0.0\nsamples = 31\nvalue = [31, 0]"] ;
80 -> 86 ;
87 [label="X[1] <= 48.5\ngini = 0.386\nsamples = 203\nvalue = [150, 53]"] ;
57 -> 87 ;
88 [label="X[0] <= 0.5\ngini = 0.414\nsamples = 181\nvalue = [128, 53]"] ;
87 -> 88 ;
89 [label="X[6] <= 1159.7\ngini = 0.384\nsamples = 158\nvalue = [117, 41]"] ;
88 -> 89 ;
90 [label="X[6] <= 594.875\ngini = 0.437\nsamples = 93\nvalue = [63, 30]"] ;
89 -> 90 ;
91 [label="X[6] <= 564.5\ngini = 0.343\nsamples = 50\nvalue = [39, 11]"] ;
90 -> 91 ;
92 [label="gini = 0.387\nsamples = 42\nvalue = [31, 11]"] ;
91 -> 92 ;
93 [label="gini = 0.0\nsamples = 8\nvalue = [8, 0]"] ;
91 -> 93 ;
94 [label="X[6] <= 611.425\ngini = 0.493\nsamples = 43\nvalue = [24, 19]"] ;
90 -> 94 ;
95 [label="gini = 0.0\nsamples = 3\nvalue = [0, 3]"] ;
94 -> 95 ;
96 [label="gini = 0.48\nsamples = 40\nvalue = [24, 16]"] ;
94 -> 96 ;
97 [label="X[1] <= 47.5\ngini = 0.281\nsamples = 65\nvalue = [54, 11]"] ;
89 -> 97 ;
98 [label="X[4] <= 1.5\ngini = 0.264\nsamples = 64\nvalue = [54, 10]"] ;
97 -> 98 ;
99 [label="gini = 0.386\nsamples = 23\nvalue = [17, 6]"] ;
98 -> 99 ;
100 [label="gini = 0.176\nsamples = 41\nvalue = [37, 4]"] ;
98 -> 100 ;
101 [label="gini = 0.0\nsamples = 1\nvalue = [0, 1]"] ;
97 -> 101 ;
102 [label="X[1] <= 16.5\ngini = 0.499\nsamples = 23\nvalue = [11, 12]"] ;
88 -> 102 ;
103 [label="X[4] <= 2.0\ngini = 0.245\nsamples = 7\nvalue = [6, 1]"] ;
102 -> 103 ;
104 [label="gini = 0.0\nsamples = 5\nvalue = [5, 0]"] ;
103 -> 104 ;
105 [label="X[7] <= 0.5\ngini = 0.5\nsamples = 2\nvalue = [1, 1]"] ;
103 -> 105 ;
106 [label="gini = 0.0\nsamples = 1\nvalue = [1, 0]"] ;
105 -> 106 ;
107 [label="gini = 0.0\nsamples = 1\nvalue = [0, 1]"] ;
105 -> 107 ;
108 [label="X[4] <= 3.5\ngini = 0.43\nsamples = 16\nvalue = [5, 11]"] ;
102 -> 108 ;
109 [label="X[15] <= 0.5\ngini = 0.26\nsamples = 13\nvalue = [2, 11]"] ;
108 -> 109 ;
110 [label="gini = 0.0\nsamples = 8\nvalue = [0, 8]"] ;
109 -> 110 ;
111 [label="gini = 0.48\nsamples = 5\nvalue = [2, 3]"] ;
109 -> 111 ;
112 [label="gini = 0.0\nsamples = 3\nvalue = [3, 0]"] ;
108 -> 112 ;
113 [label="gini = 0.0\nsamples = 22\nvalue = [22, 0]"] ;
87 -> 113 ;
114 [label="X[6] <= 2902.0\ngini = 0.487\nsamples = 126\nvalue = [73, 53]"] ;
2 -> 114 ;
115 [label="X[5] <= 104.7\ngini = 0.404\nsamples = 57\nvalue = [16, 41]"] ;
114 -> 115 ;
116 [label="X[7] <= 0.5\ngini = 0.355\nsamples = 52\nvalue = [12, 40]"] ;
115 -> 116 ;
117 [label="X[33] <= 0.5\ngini = 0.472\nsamples = 21\nvalue = [8, 13]"] ;
116 -> 117 ;
118 [label="X[6] <= 516.825\ngini = 0.391\nsamples = 15\nvalue = [4, 11]"] ;
117 -> 118 ;
119 [label="X[1] <= 1.5\ngini = 0.444\nsamples = 3\nvalue = [2, 1]"] ;
118 -> 119 ;
120 [label="gini = 0.0\nsamples = 1\nvalue = [0, 1]"] ;
119 -> 120 ;
121 [label="gini = 0.0\nsamples = 2\nvalue = [2, 0]"] ;
119 -> 121 ;
122 [label="X[15] <= 0.5\ngini = 0.278\nsamples = 12\nvalue = [2, 10]"] ;
118 -> 122 ;
123 [label="X[5] <= 99.55\ngini = 0.444\nsamples = 6\nvalue = [2, 4]"] ;
122 -> 123 ;
124 [label="gini = 0.0\nsamples = 3\nvalue = [0, 3]"] ;
123 -> 124 ;
125 [label="gini = 0.444\nsamples = 3\nvalue = [2, 1]"] ;
123 -> 125 ;
126 [label="gini = 0.0\nsamples = 6\nvalue = [0, 6]"] ;
122 -> 126 ;
127 [label="X[9] <= 0.5\ngini = 0.444\nsamples = 6\nvalue = [4, 2]"] ;
117 -> 127 ;
128 [label="X[21] <= 0.5\ngini = 0.5\nsamples = 4\nvalue = [2, 2]"] ;
127 -> 128 ;
129 [label="X[27] <= 0.5\ngini = 0.444\nsamples = 3\nvalue = [1, 2]"] ;
128 -> 129 ;
130 [label="gini = 0.0\nsamples = 1\nvalue = [1, 0]"] ;
129 -> 130 ;
131 [label="gini = 0.0\nsamples = 2\nvalue = [0, 2]"] ;
129 -> 131 ;
132 [label="gini = 0.0\nsamples = 1\nvalue = [1, 0]"] ;
128 -> 132 ;
133 [label="gini = 0.0\nsamples = 2\nvalue = [2, 0]"] ;
127 -> 133 ;
134 [label="X[15] <= 0.5\ngini = 0.225\nsamples = 31\nvalue = [4, 27]"] ;
116 -> 134 ;
135 [label="gini = 0.0\nsamples = 19\nvalue = [0, 19]"] ;
134 -> 135 ;
136 [label="X[1] <= 20.5\ngini = 0.444\nsamples = 12\nvalue = [4, 8]"] ;
134 -> 136 ;
137 [label="X[12] <= 0.5\ngini = 0.32\nsamples = 10\nvalue = [2, 8]"] ;
136 -> 137 ;
138 [label="gini = 0.0\nsamples = 7\nvalue = [0, 7]"] ;
137 -> 138 ;
139 [label="X[24] <= 0.5\ngini = 0.444\nsamples = 3\nvalue = [2, 1]"] ;
137 -> 139 ;
140 [label="gini = 0.0\nsamples = 2\nvalue = [2, 0]"] ;
139 -> 140 ;
141 [label="gini = 0.0\nsamples = 1\nvalue = [0, 1]"] ;
139 -> 141 ;
142 [label="gini = 0.0\nsamples = 2\nvalue = [2, 0]"] ;
136 -> 142 ;
143 [label="X[6] <= 1357.7\ngini = 0.32\nsamples = 5\nvalue = [4, 1]"] ;
115 -> 143 ;
144 [label="gini = 0.0\nsamples = 1\nvalue = [0, 1]"] ;
143 -> 144 ;
145 [label="gini = 0.0\nsamples = 4\nvalue = [4, 0]"] ;
143 -> 145 ;
146 [label="X[6] <= 5516.625\ngini = 0.287\nsamples = 69\nvalue = [57, 12]"] ;
114 -> 146 ;
147 [label="X[0] <= 0.5\ngini = 0.393\nsamples = 41\nvalue = [30, 11]"] ;
146 -> 147 ;
148 [label="X[1] <= 53.5\ngini = 0.278\nsamples = 30\nvalue = [25, 5]"] ;
147 -> 148 ;
149 [label="X[4] <= 1.5\ngini = 0.191\nsamples = 28\nvalue = [25, 3]"] ;
148 -> 149 ;
150 [label="X[6] <= 4131.05\ngini = 0.337\nsamples = 14\nvalue = [11, 3]"] ;
149 -> 150 ;
151 [label="gini = 0.0\nsamples = 6\nvalue = [6, 0]"] ;
150 -> 151 ;
152 [label="X[6] <= 4536.525\ngini = 0.469\nsamples = 8\nvalue = [5, 3]"] ;
150 -> 152 ;
153 [label="gini = 0.48\nsamples = 5\nvalue = [2, 3]"] ;
152 -> 153 ;
154 [label="gini = 0.0\nsamples = 3\nvalue = [3, 0]"] ;
152 -> 154 ;
155 [label="gini = 0.0\nsamples = 14\nvalue = [14, 0]"] ;
149 -> 155 ;
156 [label="gini = 0.0\nsamples = 2\nvalue = [0, 2]"] ;
148 -> 156 ;
157 [label="X[5] <= 109.025\ngini = 0.496\nsamples = 11\nvalue = [5, 6]"] ;
147 -> 157 ;
158 [label="X[5] <= 98.775\ngini = 0.444\nsamples = 9\nvalue = [3, 6]"] ;
157 -> 158 ;
159 [label="X[23] <= 0.5\ngini = 0.375\nsamples = 4\nvalue = [3, 1]"] ;
158 -> 159 ;
160 [label="gini = 0.0\nsamples = 1\nvalue = [0, 1]"] ;
159 -> 160 ;
161 [label="gini = 0.0\nsamples = 3\nvalue = [3, 0]"] ;
159 -> 161 ;
162 [label="gini = 0.0\nsamples = 5\nvalue = [0, 5]"] ;
158 -> 162 ;
163 [label="gini = 0.0\nsamples = 2\nvalue = [2, 0]"] ;
157 -> 163 ;
164 [label="X[1] <= 70.5\ngini = 0.069\nsamples = 28\nvalue = [27, 1]"] ;
146 -> 164 ;
165 [label="gini = 0.0\nsamples = 25\nvalue = [25, 0]"] ;
164 -> 165 ;
166 [label="X[6] <= 7630.825\ngini = 0.444\nsamples = 3\nvalue = [2, 1]"] ;
164 -> 166 ;
167 [label="gini = 0.0\nsamples = 1\nvalue = [0, 1]"] ;
166 -> 167 ;
168 [label="gini = 0.0\nsamples = 2\nvalue = [2, 0]"] ;
166 -> 168 ;
169 [label="X[1] <= 7.5\ngini = 0.499\nsamples = 1850\nvalue = [893, 957]"] ;
1 -> 169 ;
170 [label="X[2] <= 1.5\ngini = 0.45\nsamples = 763\nvalue = [261, 502]"] ;
169 -> 170 ;
171 [label="X[6] <= 81.7\ngini = 0.5\nsamples = 307\nvalue = [152, 155]"] ;
170 -> 171 ;
172 [label="X[6] <= 50.25\ngini = 0.477\nsamples = 150\nvalue = [59, 91]"] ;
171 -> 172 ;
173 [label="X[0] <= 0.5\ngini = 0.497\nsamples = 106\nvalue = [49, 57]"] ;
172 -> 173 ;
174 [label="X[37] <= 0.5\ngini = 0.499\nsamples = 89\nvalue = [46, 43]"] ;
173 -> 174 ;
175 [label="X[5] <= 45.675\ngini = 0.463\nsamples = 44\nvalue = [28, 16]"] ;
174 -> 175 ;
176 [label="X[30] <= 0.5\ngini = 0.397\nsamples = 33\nvalue = [24, 9]"] ;
175 -> 176 ;
177 [label="gini = 0.0\nsamples = 1\nvalue = [0, 1]"] ;
176 -> 177 ;
178 [label="gini = 0.375\nsamples = 32\nvalue = [24, 8]"] ;
176 -> 178 ;
179 [label="X[5] <= 48.975\ngini = 0.463\nsamples = 11\nvalue = [4, 7]"] ;
175 -> 179 ;
180 [label="gini = 0.0\nsamples = 7\nvalue = [0, 7]"] ;
179 -> 180 ;
181 [label="gini = 0.0\nsamples = 4\nvalue = [4, 0]"] ;
179 -> 181 ;
182 [label="X[5] <= 50.0\ngini = 0.48\nsamples = 45\nvalue = [18, 27]"] ;
174 -> 182 ;
183 [label="X[21] <= 0.5\ngini = 0.455\nsamples = 40\nvalue = [14, 26]"] ;
182 -> 183 ;
184 [label="gini = 0.375\nsamples = 4\nvalue = [3, 1]"] ;
183 -> 184 ;
185 [label="gini = 0.424\nsamples = 36\nvalue = [11, 25]"] ;
183 -> 185 ;
186 [label="X[8] <= 0.5\ngini = 0.32\nsamples = 5\nvalue = [4, 1]"] ;
182 -> 186 ;
187 [label="gini = 0.5\nsamples = 2\nvalue = [1, 1]"] ;
186 -> 187 ;
188 [label="gini = 0.0\nsamples = 3\nvalue = [3, 0]"] ;
186 -> 188 ;
189 [label="X[5] <= 45.15\ngini = 0.291\nsamples = 17\nvalue = [3, 14]"] ;
173 -> 189 ;
190 [label="gini = 0.0\nsamples = 11\nvalue = [0, 11]"] ;
189 -> 190 ;
191 [label="X[37] <= 0.5\ngini = 0.5\nsamples = 6\nvalue = [3, 3]"] ;
189 -> 191 ;
192 [label="X[9] <= 0.5\ngini = 0.375\nsamples = 4\nvalue = [3, 1]"] ;
191 -> 192 ;
193 [label="gini = 0.0\nsamples = 1\nvalue = [0, 1]"] ;
192 -> 193 ;
194 [label="gini = 0.0\nsamples = 3\nvalue = [3, 0]"] ;
192 -> 194 ;
195 [label="gini = 0.0\nsamples = 2\nvalue = [0, 2]"] ;
191 -> 195 ;
196 [label="X[5] <= 54.1\ngini = 0.351\nsamples = 44\nvalue = [10, 34]"] ;
172 -> 196 ;
197 [label="X[5] <= 25.15\ngini = 0.238\nsamples = 29\nvalue = [4, 25]"] ;
196 -> 197 ;
198 [label="gini = 0.0\nsamples = 1\nvalue = [1, 0]"] ;
197 -> 198 ;
199 [label="X[11] <= 0.5\ngini = 0.191\nsamples = 28\nvalue = [3, 25]"] ;
197 -> 199 ;
200 [label="X[23] <= 0.5\ngini = 0.5\nsamples = 2\nvalue = [1, 1]"] ;
199 -> 200 ;
201 [label="gini = 0.0\nsamples = 1\nvalue = [0, 1]"] ;
200 -> 201 ;
202 [label="gini = 0.0\nsamples = 1\nvalue = [1, 0]"] ;
200 -> 202 ;
203 [label="X[17] <= 0.5\ngini = 0.142\nsamples = 26\nvalue = [2, 24]"] ;
199 -> 203 ;
204 [label="gini = 0.083\nsamples = 23\nvalue = [1, 22]"] ;
203 -> 204 ;
205 [label="gini = 0.444\nsamples = 3\nvalue = [1, 2]"] ;
203 -> 205 ;
206 [label="X[32] <= 0.5\ngini = 0.48\nsamples = 15\nvalue = [6, 9]"] ;
196 -> 206 ;
207 [label="X[7] <= 0.5\ngini = 0.397\nsamples = 11\nvalue = [3, 8]"] ;
206 -> 207 ;
208 [label="X[5] <= 55.625\ngini = 0.5\nsamples = 6\nvalue = [3, 3]"] ;
207 -> 208 ;
209 [label="gini = 0.0\nsamples = 2\nvalue = [2, 0]"] ;
208 -> 209 ;
210 [label="gini = 0.375\nsamples = 4\nvalue = [1, 3]"] ;
208 -> 210 ;
211 [label="gini = 0.0\nsamples = 5\nvalue = [0, 5]"] ;
207 -> 211 ;
212 [label="X[37] <= 0.5\ngini = 0.375\nsamples = 4\nvalue = [3, 1]"] ;
206 -> 212 ;
213 [label="gini = 0.0\nsamples = 1\nvalue = [0, 1]"] ;
212 -> 213 ;
214 [label="gini = 0.0\nsamples = 3\nvalue = [3, 0]"] ;
212 -> 214 ;
215 [label="X[5] <= 50.925\ngini = 0.483\nsamples = 157\nvalue = [93, 64]"] ;
171 -> 215 ;
216 [label="X[6] <= 308.9\ngini = 0.499\nsamples = 101\nvalue = [53, 48]"] ;
215 -> 216 ;
217 [label="X[6] <= 85.125\ngini = 0.5\nsamples = 94\nvalue = [46, 48]"] ;
216 -> 217 ;
218 [label="gini = 0.0\nsamples = 4\nvalue = [4, 0]"] ;
217 -> 218 ;
219 [label="X[27] <= 0.5\ngini = 0.498\nsamples = 90\nvalue = [42, 48]"] ;
217 -> 219 ;
220 [label="X[8] <= 0.5\ngini = 0.43\nsamples = 16\nvalue = [11, 5]"] ;
219 -> 220 ;
221 [label="gini = 0.375\nsamples = 4\nvalue = [1, 3]"] ;
220 -> 221 ;
222 [label="gini = 0.278\nsamples = 12\nvalue = [10, 2]"] ;
220 -> 222 ;
223 [label="X[4] <= 1.5\ngini = 0.487\nsamples = 74\nvalue = [31, 43]"] ;
219 -> 223 ;
224 [label="gini = 0.404\nsamples = 32\nvalue = [9, 23]"] ;
223 -> 224 ;
225 [label="gini = 0.499\nsamples = 42\nvalue = [22, 20]"] ;
223 -> 225 ;
226 [label="gini = 0.0\nsamples = 7\nvalue = [7, 0]"] ;
216 -> 226 ;
227 [label="X[5] <= 69.175\ngini = 0.408\nsamples = 56\nvalue = [40, 16]"] ;
215 -> 227 ;
228 [label="X[6] <= 236.15\ngini = 0.34\nsamples = 46\nvalue = [36, 10]"] ;
227 -> 228 ;
229 [label="X[8] <= 0.5\ngini = 0.444\nsamples = 27\nvalue = [18, 9]"] ;
228 -> 229 ;
230 [label="X[6] <= 232.25\ngini = 0.231\nsamples = 15\nvalue = [13, 2]"] ;
229 -> 230 ;
231 [label="gini = 0.133\nsamples = 14\nvalue = [13, 1]"] ;
230 -> 231 ;
232 [label="gini = 0.0\nsamples = 1\nvalue = [0, 1]"] ;
230 -> 232 ;
233 [label="X[36] <= 0.5\ngini = 0.486\nsamples = 12\nvalue = [5, 7]"] ;
229 -> 233 ;
234 [label="gini = 0.469\nsamples = 8\nvalue = [5, 3]"] ;
233 -> 234 ;
235 [label="gini = 0.0\nsamples = 4\nvalue = [0, 4]"] ;
233 -> 235 ;
236 [label="X[11] <= 0.5\ngini = 0.1\nsamples = 19\nvalue = [18, 1]"] ;
228 -> 236 ;
237 [label="X[24] <= 0.5\ngini = 0.375\nsamples = 4\nvalue = [3, 1]"] ;
236 -> 237 ;
238 [label="gini = 0.0\nsamples = 1\nvalue = [0, 1]"] ;
237 -> 238 ;
239 [label="gini = 0.0\nsamples = 3\nvalue = [3, 0]"] ;
237 -> 239 ;
240 [label="gini = 0.0\nsamples = 15\nvalue = [15, 0]"] ;
236 -> 240 ;
241 [label="X[36] <= 0.5\ngini = 0.48\nsamples = 10\nvalue = [4, 6]"] ;
227 -> 241 ;
242 [label="X[21] <= 0.5\ngini = 0.278\nsamples = 6\nvalue = [1, 5]"] ;
241 -> 242 ;
243 [label="gini = 0.0\nsamples = 1\nvalue = [1, 0]"] ;
242 -> 243 ;
244 [label="gini = 0.0\nsamples = 5\nvalue = [0, 5]"] ;
242 -> 244 ;
245 [label="X[5] <= 75.775\ngini = 0.375\nsamples = 4\nvalue = [3, 1]"] ;
241 -> 245 ;
246 [label="gini = 0.0\nsamples = 3\nvalue = [3, 0]"] ;
245 -> 246 ;
247 [label="gini = 0.0\nsamples = 1\nvalue = [0, 1]"] ;
245 -> 247 ;
248 [label="X[6] <= 124.475\ngini = 0.364\nsamples = 456\nvalue = [109, 347]"] ;
170 -> 248 ;
249 [label="X[4] <= 3.5\ngini = 0.249\nsamples = 165\nvalue = [24, 141]"] ;
248 -> 249 ;
250 [label="X[27] <= 0.5\ngini = 0.228\nsamples = 160\nvalue = [21, 139]"] ;
249 -> 250 ;
251 [label="X[6] <= 75.3\ngini = 0.5\nsamples = 6\nvalue = [3, 3]"] ;
250 -> 251 ;
252 [label="gini = 0.0\nsamples = 2\nvalue = [2, 0]"] ;
251 -> 252 ;
253 [label="X[5] <= 93.775\ngini = 0.375\nsamples = 4\nvalue = [1, 3]"] ;
251 -> 253 ;
254 [label="gini = 0.0\nsamples = 3\nvalue = [0, 3]"] ;
253 -> 254 ;
255 [label="gini = 0.0\nsamples = 1\nvalue = [1, 0]"] ;
253 -> 255 ;
256 [label="X[5] <= 69.85\ngini = 0.206\nsamples = 154\nvalue = [18, 136]"] ;
250 -> 256 ;
257 [label="gini = 0.0\nsamples = 27\nvalue = [0, 27]"] ;
256 -> 257 ;
258 [label="X[6] <= 74.375\ngini = 0.243\nsamples = 127\nvalue = [18, 109]"] ;
256 -> 258 ;
259 [label="X[6] <= 74.275\ngini = 0.381\nsamples = 43\nvalue = [11, 32]"] ;
258 -> 259 ;
260 [label="gini = 0.343\nsamples = 41\nvalue = [9, 32]"] ;
259 -> 260 ;
261 [label="gini = 0.0\nsamples = 2\nvalue = [2, 0]"] ;
259 -> 261 ;
262 [label="X[5] <= 80.525\ngini = 0.153\nsamples = 84\nvalue = [7, 77]"] ;
258 -> 262 ;
263 [label="gini = 0.042\nsamples = 47\nvalue = [1, 46]"] ;
262 -> 263 ;
264 [label="gini = 0.272\nsamples = 37\nvalue = [6, 31]"] ;
262 -> 264 ;
265 [label="X[5] <= 77.75\ngini = 0.48\nsamples = 5\nvalue = [3, 2]"] ;
249 -> 265 ;
266 [label="gini = 0.0\nsamples = 3\nvalue = [3, 0]"] ;
265 -> 266 ;
267 [label="gini = 0.0\nsamples = 2\nvalue = [0, 2]"] ;
265 -> 267 ;
268 [label="X[5] <= 73.175\ngini = 0.414\nsamples = 291\nvalue = [85, 206]"] ;
248 -> 268 ;
269 [label="X[9] <= 0.5\ngini = 0.5\nsamples = 59\nvalue = [30, 29]"] ;
268 -> 269 ;
270 [label="X[1] <= 6.5\ngini = 0.444\nsamples = 21\nvalue = [14, 7]"] ;
269 -> 270 ;
271 [label="X[5] <= 69.875\ngini = 0.305\nsamples = 16\nvalue = [13, 3]"] ;
270 -> 271 ;
272 [label="gini = 0.0\nsamples = 6\nvalue = [6, 0]"] ;
271 -> 272 ;
273 [label="X[6] <= 316.375\ngini = 0.42\nsamples = 10\nvalue = [7, 3]"] ;
271 -> 273 ;
274 [label="gini = 0.346\nsamples = 9\nvalue = [7, 2]"] ;
273 -> 274 ;
275 [label="gini = 0.0\nsamples = 1\nvalue = [0, 1]"] ;
273 -> 275 ;
276 [label="X[5] <= 69.275\ngini = 0.32\nsamples = 5\nvalue = [1, 4]"] ;
270 -> 276 ;
277 [label="X[6] <= 492.225\ngini = 0.5\nsamples = 2\nvalue = [1, 1]"] ;
276 -> 277 ;
278 [label="gini = 0.0\nsamples = 1\nvalue = [1, 0]"] ;
277 -> 278 ;
279 [label="gini = 0.0\nsamples = 1\nvalue = [0, 1]"] ;
277 -> 279 ;
280 [label="gini = 0.0\nsamples = 3\nvalue = [0, 3]"] ;
276 -> 280 ;
281 [label="X[6] <= 426.175\ngini = 0.488\nsamples = 38\nvalue = [16, 22]"] ;
269 -> 281 ;
282 [label="X[4] <= 2.5\ngini = 0.457\nsamples = 34\nvalue = [12, 22]"] ;
281 -> 282 ;
283 [label="X[5] <= 71.1\ngini = 0.497\nsamples = 26\nvalue = [12, 14]"] ;
282 -> 283 ;
284 [label="gini = 0.476\nsamples = 23\nvalue = [9, 14]"] ;
283 -> 284 ;
285 [label="gini = 0.0\nsamples = 3\nvalue = [3, 0]"] ;
283 -> 285 ;
286 [label="gini = 0.0\nsamples = 8\nvalue = [0, 8]"] ;
282 -> 286 ;
287 [label="gini = 0.0\nsamples = 4\nvalue = [4, 0]"] ;
281 -> 287 ;
288 [label="X[6] <= 141.725\ngini = 0.362\nsamples = 232\nvalue = [55, 177]"] ;
268 -> 288 ;
289 [label="gini = 0.0\nsamples = 2\nvalue = [2, 0]"] ;
288 -> 289 ;
290 [label="X[6] <= 701.075\ngini = 0.355\nsamples = 230\nvalue = [53, 177]"] ;
288 -> 290 ;
291 [label="X[15] <= 0.5\ngini = 0.347\nsamples = 228\nvalue = [51, 177]"] ;
290 -> 291 ;
292 [label="X[6] <= 516.375\ngini = 0.268\nsamples = 119\nvalue = [19, 100]"] ;
291 -> 292 ;
293 [label="gini = 0.223\nsamples = 94\nvalue = [12, 82]"] ;
292 -> 293 ;
294 [label="gini = 0.403\nsamples = 25\nvalue = [7, 18]"] ;
292 -> 294 ;
295 [label="X[6] <= 219.325\ngini = 0.415\nsamples = 109\nvalue = [32, 77]"] ;
291 -> 295 ;
296 [label="gini = 0.219\nsamples = 24\nvalue = [3, 21]"] ;
295 -> 296 ;
297 [label="gini = 0.45\nsamples = 85\nvalue = [29, 56]"] ;
295 -> 297 ;
298 [label="gini = 0.0\nsamples = 2\nvalue = [2, 0]"] ;
290 -> 298 ;
299 [label="X[5] <= 73.7\ngini = 0.487\nsamples = 1087\nvalue = [632, 455]"] ;
169 -> 299 ;
300 [label="X[6] <= 352.2\ngini = 0.352\nsamples = 355\nvalue = [274, 81]"] ;
299 -> 300 ;
301 [label="X[1] <= 8.5\ngini = 0.426\nsamples = 13\nvalue = [4, 9]"] ;
300 -> 301 ;
302 [label="X[11] <= 0.5\ngini = 0.375\nsamples = 4\nvalue = [3, 1]"] ;
301 -> 302 ;
303 [label="gini = 0.0\nsamples = 1\nvalue = [0, 1]"] ;
302 -> 303 ;
304 [label="gini = 0.0\nsamples = 3\nvalue = [3, 0]"] ;
302 -> 304 ;
305 [label="X[5] <= 27.2\ngini = 0.198\nsamples = 9\nvalue = [1, 8]"] ;
301 -> 305 ;
306 [label="X[1] <= 12.0\ngini = 0.5\nsamples = 2\nvalue = [1, 1]"] ;
305 -> 306 ;
307 [label="gini = 0.0\nsamples = 1\nvalue = [1, 0]"] ;
306 -> 307 ;
308 [label="gini = 0.0\nsamples = 1\nvalue = [0, 1]"] ;
306 -> 308 ;
309 [label="gini = 0.0\nsamples = 7\nvalue = [0, 7]"] ;
305 -> 309 ;
310 [label="X[12] <= 0.5\ngini = 0.332\nsamples = 342\nvalue = [270, 72]"] ;
300 -> 310 ;
311 [label="X[6] <= 3035.55\ngini = 0.363\nsamples = 269\nvalue = [205, 64]"] ;
310 -> 311 ;
312 [label="X[6] <= 2825.45\ngini = 0.376\nsamples = 255\nvalue = [191, 64]"] ;
311 -> 312 ;
313 [label="X[1] <= 18.5\ngini = 0.365\nsamples = 250\nvalue = [190, 60]"] ;
312 -> 313 ;
314 [label="X[1] <= 14.5\ngini = 0.418\nsamples = 121\nvalue = [85, 36]"] ;
313 -> 314 ;
315 [label="gini = 0.363\nsamples = 88\nvalue = [67, 21]"] ;
314 -> 315 ;
316 [label="gini = 0.496\nsamples = 33\nvalue = [18, 15]"] ;
314 -> 316 ;
317 [label="X[1] <= 56.5\ngini = 0.303\nsamples = 129\nvalue = [105, 24]"] ;
313 -> 317 ;
318 [label="gini = 0.281\nsamples = 124\nvalue = [103, 21]"] ;
317 -> 318 ;
319 [label="gini = 0.48\nsamples = 5\nvalue = [2, 3]"] ;
317 -> 319 ;
320 [label="X[4] <= 3.5\ngini = 0.32\nsamples = 5\nvalue = [1, 4]"] ;
312 -> 320 ;
321 [label="gini = 0.0\nsamples = 4\nvalue = [0, 4]"] ;
320 -> 321 ;
322 [label="gini = 0.0\nsamples = 1\nvalue = [1, 0]"] ;
320 -> 322 ;
323 [label="gini = 0.0\nsamples = 14\nvalue = [14, 0]"] ;
311 -> 323 ;
324 [label="X[8] <= 0.5\ngini = 0.195\nsamples = 73\nvalue = [65, 8]"] ;
310 -> 324 ;
325 [label="X[37] <= 0.5\ngini = 0.327\nsamples = 34\nvalue = [27, 7]"] ;
324 -> 325 ;
326 [label="X[5] <= 54.3\ngini = 0.473\nsamples = 13\nvalue = [8, 5]"] ;
325 -> 326 ;
327 [label="X[5] <= 34.65\ngini = 0.278\nsamples = 6\nvalue = [5, 1]"] ;
326 -> 327 ;
328 [label="gini = 0.0\nsamples = 1\nvalue = [0, 1]"] ;
327 -> 328 ;
329 [label="gini = 0.0\nsamples = 5\nvalue = [5, 0]"] ;
327 -> 329 ;
330 [label="X[1] <= 20.0\ngini = 0.49\nsamples = 7\nvalue = [3, 4]"] ;
326 -> 330 ;
331 [label="gini = 0.48\nsamples = 5\nvalue = [3, 2]"] ;
330 -> 331 ;
332 [label="gini = 0.0\nsamples = 2\nvalue = [0, 2]"] ;
330 -> 332 ;
333 [label="X[1] <= 13.0\ngini = 0.172\nsamples = 21\nvalue = [19, 2]"] ;
325 -> 333 ;
334 [label="X[1] <= 10.5\ngini = 0.375\nsamples = 8\nvalue = [6, 2]"] ;
333 -> 334 ;
335 [label="gini = 0.0\nsamples = 5\nvalue = [5, 0]"] ;
334 -> 335 ;
336 [label="gini = 0.444\nsamples = 3\nvalue = [1, 2]"] ;
334 -> 336 ;
337 [label="gini = 0.0\nsamples = 13\nvalue = [13, 0]"] ;
333 -> 337 ;
338 [label="X[1] <= 53.5\ngini = 0.05\nsamples = 39\nvalue = [38, 1]"] ;
324 -> 338 ;
339 [label="gini = 0.0\nsamples = 38\nvalue = [38, 0]"] ;
338 -> 339 ;
340 [label="gini = 0.0\nsamples = 1\nvalue = [0, 1]"] ;
338 -> 340 ;
341 [label="X[1] <= 26.5\ngini = 0.5\nsamples = 732\nvalue = [358, 374]"] ;
299 -> 341 ;
342 [label="X[5] <= 80.75\ngini = 0.486\nsamples = 376\nvalue = [157, 219]"] ;
341 -> 342 ;
343 [label="X[5] <= 74.575\ngini = 0.488\nsamples = 97\nvalue = [56, 41]"] ;
342 -> 343 ;
344 [label="X[6] <= 783.075\ngini = 0.388\nsamples = 19\nvalue = [5, 14]"] ;
343 -> 344 ;
345 [label="X[5] <= 74.35\ngini = 0.375\nsamples = 4\nvalue = [3, 1]"] ;
344 -> 345 ;
346 [label="gini = 0.0\nsamples = 3\nvalue = [3, 0]"] ;
345 -> 346 ;
347 [label="gini = 0.0\nsamples = 1\nvalue = [0, 1]"] ;
345 -> 347 ;
348 [label="X[6] <= 1158.1\ngini = 0.231\nsamples = 15\nvalue = [2, 13]"] ;
344 -> 348 ;
349 [label="gini = 0.0\nsamples = 10\nvalue = [0, 10]"] ;
348 -> 349 ;
350 [label="X[21] <= 0.5\ngini = 0.48\nsamples = 5\nvalue = [2, 3]"] ;
348 -> 350 ;
351 [label="gini = 0.0\nsamples = 2\nvalue = [0, 2]"] ;
350 -> 351 ;
352 [label="gini = 0.444\nsamples = 3\nvalue = [2, 1]"] ;
350 -> 352 ;
353 [label="X[5] <= 74.9\ngini = 0.453\nsamples = 78\nvalue = [51, 27]"] ;
343 -> 353 ;
354 [label="gini = 0.0\nsamples = 6\nvalue = [6, 0]"] ;
353 -> 354 ;
355 [label="X[5] <= 75.025\ngini = 0.469\nsamples = 72\nvalue = [45, 27]"] ;
353 -> 355 ;
356 [label="gini = 0.0\nsamples = 3\nvalue = [0, 3]"] ;
355 -> 356 ;
357 [label="X[5] <= 75.25\ngini = 0.454\nsamples = 69\nvalue = [45, 24]"] ;
355 -> 357 ;
358 [label="gini = 0.0\nsamples = 5\nvalue = [5, 0]"] ;
357 -> 358 ;
359 [label="gini = 0.469\nsamples = 64\nvalue = [40, 24]"] ;
357 -> 359 ;
360 [label="X[15] <= 0.5\ngini = 0.462\nsamples = 279\nvalue = [101, 178]"] ;
342 -> 360 ;
361 [label="X[6] <= 1536.325\ngini = 0.423\nsamples = 184\nvalue = [56, 128]"] ;
360 -> 361 ;
362 [label="X[12] <= 0.5\ngini = 0.338\nsamples = 93\nvalue = [20, 73]"] ;
361 -> 362 ;
363 [label="X[9] <= 0.5\ngini = 0.295\nsamples = 78\nvalue = [14, 64]"] ;
362 -> 363 ;
364 [label="gini = 0.087\nsamples = 22\nvalue = [1, 21]"] ;
363 -> 364 ;
365 [label="gini = 0.357\nsamples = 56\nvalue = [13, 43]"] ;
363 -> 365 ;
366 [label="X[9] <= 0.5\ngini = 0.48\nsamples = 15\nvalue = [6, 9]"] ;
362 -> 366 ;
367 [label="gini = 0.375\nsamples = 12\nvalue = [3, 9]"] ;
366 -> 367 ;
368 [label="gini = 0.0\nsamples = 3\nvalue = [3, 0]"] ;
366 -> 368 ;
369 [label="X[6] <= 2077.85\ngini = 0.478\nsamples = 91\nvalue = [36, 55]"] ;
361 -> 369 ;
370 [label="X[12] <= 0.5\ngini = 0.5\nsamples = 59\nvalue = [30, 29]"] ;
369 -> 370 ;
371 [label="gini = 0.495\nsamples = 49\nvalue = [22, 27]"] ;
370 -> 371 ;
372 [label="gini = 0.32\nsamples = 10\nvalue = [8, 2]"] ;
370 -> 372 ;
373 [label="X[24] <= 0.5\ngini = 0.305\nsamples = 32\nvalue = [6, 26]"] ;
369 -> 373 ;
374 [label="gini = 0.117\nsamples = 16\nvalue = [1, 15]"] ;
373 -> 374 ;
375 [label="gini = 0.43\nsamples = 16\nvalue = [5, 11]"] ;
373 -> 375 ;
376 [label="X[5] <= 100.575\ngini = 0.499\nsamples = 95\nvalue = [45, 50]"] ;
360 -> 376 ;
377 [label="X[5] <= 88.95\ngini = 0.496\nsamples = 92\nvalue = [42, 50]"] ;
376 -> 377 ;
378 [label="X[5] <= 84.45\ngini = 0.492\nsamples = 39\nvalue = [22, 17]"] ;
377 -> 378 ;
379 [label="gini = 0.432\nsamples = 19\nvalue = [6, 13]"] ;
378 -> 379 ;
380 [label="gini = 0.32\nsamples = 20\nvalue = [16, 4]"] ;
378 -> 380 ;
381 [label="X[5] <= 89.525\ngini = 0.47\nsamples = 53\nvalue = [20, 33]"] ;
377 -> 381 ;
382 [label="gini = 0.0\nsamples = 7\nvalue = [0, 7]"] ;
381 -> 382 ;
383 [label="gini = 0.491\nsamples = 46\nvalue = [20, 26]"] ;
381 -> 383 ;
384 [label="gini = 0.0\nsamples = 3\nvalue = [3, 0]"] ;
376 -> 384 ;
385 [label="X[15] <= 0.5\ngini = 0.492\nsamples = 356\nvalue = [201, 155]"] ;
341 -> 385 ;
386 [label="X[5] <= 75.075\ngini = 0.498\nsamples = 288\nvalue = [152, 136]"] ;
385 -> 386 ;
387 [label="gini = 0.0\nsamples = 7\nvalue = [7, 0]"] ;
386 -> 387 ;
388 [label="X[4] <= 1.5\ngini = 0.499\nsamples = 281\nvalue = [145, 136]"] ;
386 -> 388 ;
389 [label="X[6] <= 3078.4\ngini = 0.497\nsamples = 168\nvalue = [77, 91]"] ;
388 -> 389 ;
390 [label="X[6] <= 2979.15\ngini = 0.405\nsamples = 39\nvalue = [11, 28]"] ;
389 -> 390 ;
391 [label="gini = 0.464\nsamples = 30\nvalue = [11, 19]"] ;
390 -> 391 ;
392 [label="gini = 0.0\nsamples = 9\nvalue = [0, 9]"] ;
390 -> 392 ;
393 [label="X[6] <= 3427.15\ngini = 0.5\nsamples = 129\nvalue = [66, 63]"] ;
389 -> 393 ;
394 [label="gini = 0.426\nsamples = 26\nvalue = [18, 8]"] ;
393 -> 394 ;
395 [label="gini = 0.498\nsamples = 103\nvalue = [48, 55]"] ;
393 -> 395 ;
396 [label="X[5] <= 95.625\ngini = 0.479\nsamples = 113\nvalue = [68, 45]"] ;
388 -> 396 ;
397 [label="X[1] <= 53.5\ngini = 0.428\nsamples = 71\nvalue = [49, 22]"] ;
396 -> 397 ;
398 [label="gini = 0.47\nsamples = 53\nvalue = [33, 20]"] ;
397 -> 398 ;
399 [label="gini = 0.198\nsamples = 18\nvalue = [16, 2]"] ;
397 -> 399 ;
400 [label="X[5] <= 105.8\ngini = 0.495\nsamples = 42\nvalue = [19, 23]"] ;
396 -> 400 ;
401 [label="gini = 0.5\nsamples = 39\nvalue = [19, 20]"] ;
400 -> 401 ;
402 [label="gini = 0.0\nsamples = 3\nvalue = [0, 3]"] ;
400 -> 402 ;
403 [label="X[5] <= 89.6\ngini = 0.403\nsamples = 68\nvalue = [49, 19]"] ;
385 -> 403 ;
404 [label="X[5] <= 86.2\ngini = 0.478\nsamples = 33\nvalue = [20, 13]"] ;
403 -> 404 ;
405 [label="X[6] <= 2625.475\ngini = 0.452\nsamples = 29\nvalue = [19, 10]"] ;
404 -> 405 ;
406 [label="X[1] <= 30.5\ngini = 0.469\nsamples = 8\nvalue = [3, 5]"] ;
405 -> 406 ;
407 [label="gini = 0.375\nsamples = 4\nvalue = [3, 1]"] ;
406 -> 407 ;
408 [label="gini = 0.0\nsamples = 4\nvalue = [0, 4]"] ;
406 -> 408 ;
409 [label="X[6] <= 3176.8\ngini = 0.363\nsamples = 21\nvalue = [16, 5]"] ;
405 -> 409 ;
410 [label="gini = 0.0\nsamples = 9\nvalue = [9, 0]"] ;
409 -> 410 ;
411 [label="gini = 0.486\nsamples = 12\nvalue = [7, 5]"] ;
409 -> 411 ;
412 [label="X[1] <= 31.5\ngini = 0.375\nsamples = 4\nvalue = [1, 3]"] ;
404 -> 412 ;
413 [label="gini = 0.0\nsamples = 1\nvalue = [1, 0]"] ;
412 -> 413 ;
414 [label="gini = 0.0\nsamples = 3\nvalue = [0, 3]"] ;
412 -> 414 ;
415 [label="X[5] <= 96.15\ngini = 0.284\nsamples = 35\nvalue = [29, 6]"] ;
403 -> 415 ;
416 [label="X[5] <= 90.325\ngini = 0.091\nsamples = 21\nvalue = [20, 1]"] ;
415 -> 416 ;
417 [label="X[5] <= 90.05\ngini = 0.375\nsamples = 4\nvalue = [3, 1]"] ;
416 -> 417 ;
418 [label="gini = 0.0\nsamples = 3\nvalue = [3, 0]"] ;
417 -> 418 ;
419 [label="gini = 0.0\nsamples = 1\nvalue = [0, 1]"] ;
417 -> 419 ;
420 [label="gini = 0.0\nsamples = 17\nvalue = [17, 0]"] ;
416 -> 420 ;
421 [label="X[4] <= 2.0\ngini = 0.459\nsamples = 14\nvalue = [9, 5]"] ;
415 -> 421 ;
422 [label="X[7] <= 0.5\ngini = 0.469\nsamples = 8\nvalue = [3, 5]"] ;
421 -> 422 ;
423 [label="gini = 0.0\nsamples = 3\nvalue = [0, 3]"] ;
422 -> 423 ;
424 [label="gini = 0.48\nsamples = 5\nvalue = [3, 2]"] ;
422 -> 424 ;
425 [label="gini = 0.0\nsamples = 6\nvalue = [6, 0]"] ;
421 -> 425 ;
426 [label="X[5] <= 93.675\ngini = 0.12\nsamples = 2220\nvalue = [2078, 142]"] ;
0 -> 426 [labeldistance=2.5, labelangle=-45, headlabel="False"] ;
427 [label="X[3] <= 2.5\ngini = 0.072\nsamples = 1692\nvalue = [1629, 63]"] ;
426 -> 427 ;
428 [label="X[18] <= 0.5\ngini = 0.123\nsamples = 747\nvalue = [698, 49]"] ;
427 -> 428 ;
429 [label="X[5] <= 60.025\ngini = 0.086\nsamples = 512\nvalue = [489, 23]"] ;
428 -> 429 ;
430 [label="X[6] <= 37.075\ngini = 0.05\nsamples = 348\nvalue = [339, 9]"] ;
429 -> 430 ;
431 [label="X[4] <= 3.0\ngini = 0.375\nsamples = 8\nvalue = [6, 2]"] ;
430 -> 431 ;
432 [label="X[6] <= 35.35\ngini = 0.245\nsamples = 7\nvalue = [6, 1]"] ;
431 -> 432 ;
433 [label="gini = 0.0\nsamples = 6\nvalue = [6, 0]"] ;
432 -> 433 ;
434 [label="gini = 0.0\nsamples = 1\nvalue = [0, 1]"] ;
432 -> 434 ;
435 [label="gini = 0.0\nsamples = 1\nvalue = [0, 1]"] ;
431 -> 435 ;
436 [label="X[4] <= 1.5\ngini = 0.04\nsamples = 340\nvalue = [333, 7]"] ;
430 -> 436 ;
437 [label="X[37] <= 0.5\ngini = 0.172\nsamples = 42\nvalue = [38, 4]"] ;
436 -> 437 ;
438 [label="gini = 0.0\nsamples = 19\nvalue = [19, 0]"] ;
437 -> 438 ;
439 [label="X[6] <= 1740.0\ngini = 0.287\nsamples = 23\nvalue = [19, 4]"] ;
437 -> 439 ;
440 [label="X[27] <= 0.5\ngini = 0.408\nsamples = 14\nvalue = [10, 4]"] ;
439 -> 440 ;
441 [label="gini = 0.18\nsamples = 10\nvalue = [9, 1]"] ;
440 -> 441 ;
442 [label="gini = 0.375\nsamples = 4\nvalue = [1, 3]"] ;
440 -> 442 ;
443 [label="gini = 0.0\nsamples = 9\nvalue = [9, 0]"] ;
439 -> 443 ;
444 [label="X[6] <= 147.5\ngini = 0.02\nsamples = 298\nvalue = [295, 3]"] ;
436 -> 444 ;
445 [label="X[1] <= 7.5\ngini = 0.105\nsamples = 18\nvalue = [17, 1]"] ;
444 -> 445 ;
446 [label="gini = 0.0\nsamples = 17\nvalue = [17, 0]"] ;
445 -> 446 ;
447 [label="gini = 0.0\nsamples = 1\nvalue = [0, 1]"] ;
445 -> 447 ;
448 [label="X[8] <= 0.5\ngini = 0.014\nsamples = 280\nvalue = [278, 2]"] ;
444 -> 448 ;
449 [label="X[4] <= 2.5\ngini = 0.03\nsamples = 131\nvalue = [129, 2]"] ;
448 -> 449 ;
450 [label="gini = 0.0\nsamples = 61\nvalue = [61, 0]"] ;
449 -> 450 ;
451 [label="gini = 0.056\nsamples = 70\nvalue = [68, 2]"] ;
449 -> 451 ;
452 [label="gini = 0.0\nsamples = 149\nvalue = [149, 0]"] ;
448 -> 452 ;
453 [label="X[5] <= 60.425\ngini = 0.156\nsamples = 164\nvalue = [150, 14]"] ;
429 -> 453 ;
454 [label="X[9] <= 0.5\ngini = 0.48\nsamples = 5\nvalue = [2, 3]"] ;
453 -> 454 ;
455 [label="gini = 0.0\nsamples = 2\nvalue = [0, 2]"] ;
454 -> 455 ;
456 [label="X[5] <= 60.3\ngini = 0.444\nsamples = 3\nvalue = [2, 1]"] ;
454 -> 456 ;
457 [label="gini = 0.0\nsamples = 2\nvalue = [2, 0]"] ;
456 -> 457 ;
458 [label="gini = 0.0\nsamples = 1\nvalue = [0, 1]"] ;
456 -> 458 ;
459 [label="X[1] <= 49.5\ngini = 0.129\nsamples = 159\nvalue = [148, 11]"] ;
453 -> 459 ;
460 [label="X[0] <= 0.5\ngini = 0.204\nsamples = 78\nvalue = [69, 9]"] ;
459 -> 460 ;
461 [label="X[27] <= 0.5\ngini = 0.176\nsamples = 72\nvalue = [65, 7]"] ;
460 -> 461 ;
462 [label="X[5] <= 76.925\ngini = 0.278\nsamples = 42\nvalue = [35, 7]"] ;
461 -> 462 ;
463 [label="gini = 0.185\nsamples = 29\nvalue = [26, 3]"] ;
462 -> 463 ;
464 [label="gini = 0.426\nsamples = 13\nvalue = [9, 4]"] ;
462 -> 464 ;
465 [label="gini = 0.0\nsamples = 30\nvalue = [30, 0]"] ;
461 -> 465 ;
466 [label="X[5] <= 70.95\ngini = 0.444\nsamples = 6\nvalue = [4, 2]"] ;
460 -> 466 ;
467 [label="gini = 0.0\nsamples = 1\nvalue = [0, 1]"] ;
466 -> 467 ;
468 [label="X[24] <= 0.5\ngini = 0.32\nsamples = 5\nvalue = [4, 1]"] ;
466 -> 468 ;
469 [label="gini = 0.0\nsamples = 3\nvalue = [3, 0]"] ;
468 -> 469 ;
470 [label="gini = 0.5\nsamples = 2\nvalue = [1, 1]"] ;
468 -> 470 ;
471 [label="X[5] <= 89.65\ngini = 0.048\nsamples = 81\nvalue = [79, 2]"] ;
459 -> 471 ;
472 [label="X[27] <= 0.5\ngini = 0.027\nsamples = 73\nvalue = [72, 1]"] ;
471 -> 472 ;
473 [label="gini = 0.0\nsamples = 46\nvalue = [46, 0]"] ;
472 -> 473 ;
474 [label="X[5] <= 72.75\ngini = 0.071\nsamples = 27\nvalue = [26, 1]"] ;
472 -> 474 ;
475 [label="gini = 0.18\nsamples = 10\nvalue = [9, 1]"] ;
474 -> 475 ;
476 [label="gini = 0.0\nsamples = 17\nvalue = [17, 0]"] ;
474 -> 476 ;
477 [label="X[5] <= 89.8\ngini = 0.219\nsamples = 8\nvalue = [7, 1]"] ;
471 -> 477 ;
478 [label="gini = 0.0\nsamples = 1\nvalue = [0, 1]"] ;
477 -> 478 ;
479 [label="gini = 0.0\nsamples = 7\nvalue = [7, 0]"] ;
477 -> 479 ;
480 [label="X[5] <= 24.225\ngini = 0.197\nsamples = 235\nvalue = [209, 26]"] ;
428 -> 480 ;
481 [label="gini = 0.0\nsamples = 1\nvalue = [0, 1]"] ;
480 -> 481 ;
482 [label="X[37] <= 0.5\ngini = 0.191\nsamples = 234\nvalue = [209, 25]"] ;
480 -> 482 ;
483 [label="X[6] <= 5026.325\ngini = 0.09\nsamples = 85\nvalue = [81, 4]"] ;
482 -> 483 ;
484 [label="X[5] <= 87.6\ngini = 0.049\nsamples = 80\nvalue = [78, 2]"] ;
483 -> 484 ;
485 [label="X[5] <= 39.25\ngini = 0.026\nsamples = 75\nvalue = [74, 1]"] ;
484 -> 485 ;
486 [label="X[5] <= 34.45\ngini = 0.278\nsamples = 6\nvalue = [5, 1]"] ;
485 -> 486 ;
487 [label="gini = 0.0\nsamples = 5\nvalue = [5, 0]"] ;
486 -> 487 ;
488 [label="gini = 0.0\nsamples = 1\nvalue = [0, 1]"] ;
486 -> 488 ;
489 [label="gini = 0.0\nsamples = 69\nvalue = [69, 0]"] ;
485 -> 489 ;
490 [label="X[5] <= 88.65\ngini = 0.32\nsamples = 5\nvalue = [4, 1]"] ;
484 -> 490 ;
491 [label="gini = 0.0\nsamples = 1\nvalue = [0, 1]"] ;
490 -> 491 ;
492 [label="gini = 0.0\nsamples = 4\nvalue = [4, 0]"] ;
490 -> 492 ;
493 [label="X[6] <= 5541.275\ngini = 0.48\nsamples = 5\nvalue = [3, 2]"] ;
483 -> 493 ;
494 [label="gini = 0.0\nsamples = 2\nvalue = [0, 2]"] ;
493 -> 494 ;
495 [label="gini = 0.0\nsamples = 3\nvalue = [3, 0]"] ;
493 -> 495 ;
496 [label="X[1] <= 25.5\ngini = 0.242\nsamples = 149\nvalue = [128, 21]"] ;
482 -> 496 ;
497 [label="X[5] <= 60.525\ngini = 0.397\nsamples = 33\nvalue = [24, 9]"] ;
496 -> 497 ;
498 [label="X[6] <= 408.05\ngini = 0.497\nsamples = 13\nvalue = [7, 6]"] ;
497 -> 498 ;
499 [label="gini = 0.0\nsamples = 4\nvalue = [4, 0]"] ;
498 -> 499 ;
500 [label="X[6] <= 1204.25\ngini = 0.444\nsamples = 9\nvalue = [3, 6]"] ;
498 -> 500 ;
501 [label="gini = 0.245\nsamples = 7\nvalue = [1, 6]"] ;
500 -> 501 ;
502 [label="gini = 0.0\nsamples = 2\nvalue = [2, 0]"] ;
500 -> 502 ;
503 [label="X[6] <= 2019.05\ngini = 0.255\nsamples = 20\nvalue = [17, 3]"] ;
497 -> 503 ;
504 [label="X[9] <= 0.5\ngini = 0.188\nsamples = 19\nvalue = [17, 2]"] ;
503 -> 504 ;
505 [label="gini = 0.375\nsamples = 8\nvalue = [6, 2]"] ;
504 -> 505 ;
506 [label="gini = 0.0\nsamples = 11\nvalue = [11, 0]"] ;
504 -> 506 ;
507 [label="gini = 0.0\nsamples = 1\nvalue = [0, 1]"] ;
503 -> 507 ;
508 [label="X[35] <= 0.5\ngini = 0.185\nsamples = 116\nvalue = [104, 12]"] ;
496 -> 508 ;
509 [label="X[12] <= 0.5\ngini = 0.069\nsamples = 56\nvalue = [54, 2]"] ;
508 -> 509 ;
510 [label="gini = 0.0\nsamples = 36\nvalue = [36, 0]"] ;
509 -> 510 ;
511 [label="X[8] <= 0.5\ngini = 0.18\nsamples = 20\nvalue = [18, 2]"] ;
509 -> 511 ;
512 [label="gini = 0.408\nsamples = 7\nvalue = [5, 2]"] ;
511 -> 512 ;
513 [label="gini = 0.0\nsamples = 13\nvalue = [13, 0]"] ;
511 -> 513 ;
514 [label="X[24] <= 0.5\ngini = 0.278\nsamples = 60\nvalue = [50, 10]"] ;
508 -> 514 ;
515 [label="X[6] <= 5104.375\ngini = 0.17\nsamples = 32\nvalue = [29, 3]"] ;
514 -> 515 ;
516 [label="gini = 0.124\nsamples = 30\nvalue = [28, 2]"] ;
515 -> 516 ;
517 [label="gini = 0.5\nsamples = 2\nvalue = [1, 1]"] ;
515 -> 517 ;
518 [label="X[1] <= 67.0\ngini = 0.375\nsamples = 28\nvalue = [21, 7]"] ;
514 -> 518 ;
519 [label="gini = 0.346\nsamples = 27\nvalue = [21, 6]"] ;
518 -> 519 ;
520 [label="gini = 0.0\nsamples = 1\nvalue = [0, 1]"] ;
518 -> 520 ;
521 [label="X[5] <= 92.425\ngini = 0.029\nsamples = 945\nvalue = [931, 14]"] ;
427 -> 521 ;
522 [label="X[24] <= 0.5\ngini = 0.027\nsamples = 936\nvalue = [923, 13]"] ;
521 -> 522 ;
523 [label="X[1] <= 70.5\ngini = 0.022\nsamples = 808\nvalue = [799, 9]"] ;
522 -> 523 ;
524 [label="X[17] <= 0.5\ngini = 0.029\nsamples = 620\nvalue = [611, 9]"] ;
523 -> 524 ;
525 [label="X[10] <= 0.5\ngini = 0.015\nsamples = 392\nvalue = [389, 3]"] ;
524 -> 525 ;
526 [label="X[18] <= 0.5\ngini = 0.037\nsamples = 158\nvalue = [155, 3]"] ;
525 -> 526 ;
527 [label="X[5] <= 19.775\ngini = 0.027\nsamples = 148\nvalue = [146, 2]"] ;
526 -> 527 ;
528 [label="gini = 0.095\nsamples = 40\nvalue = [38, 2]"] ;
527 -> 528 ;
529 [label="gini = 0.0\nsamples = 108\nvalue = [108, 0]"] ;
527 -> 529 ;
530 [label="X[1] <= 46.5\ngini = 0.18\nsamples = 10\nvalue = [9, 1]"] ;
526 -> 530 ;
531 [label="gini = 0.5\nsamples = 2\nvalue = [1, 1]"] ;
530 -> 531 ;
532 [label="gini = 0.0\nsamples = 8\nvalue = [8, 0]"] ;
530 -> 532 ;
533 [label="gini = 0.0\nsamples = 234\nvalue = [234, 0]"] ;
525 -> 533 ;
534 [label="X[6] <= 747.95\ngini = 0.051\nsamples = 228\nvalue = [222, 6]"] ;
524 -> 534 ;
535 [label="X[6] <= 658.875\ngini = 0.159\nsamples = 23\nvalue = [21, 2]"] ;
534 -> 535 ;
536 [label="gini = 0.0\nsamples = 21\nvalue = [21, 0]"] ;
535 -> 536 ;
537 [label="gini = 0.0\nsamples = 2\nvalue = [0, 2]"] ;
535 -> 537 ;
538 [label="X[27] <= 0.5\ngini = 0.038\nsamples = 205\nvalue = [201, 4]"] ;
534 -> 538 ;
539 [label="X[1] <= 69.5\ngini = 0.022\nsamples = 179\nvalue = [177, 2]"] ;
538 -> 539 ;
540 [label="gini = 0.012\nsamples = 161\nvalue = [160, 1]"] ;
539 -> 540 ;
541 [label="gini = 0.105\nsamples = 18\nvalue = [17, 1]"] ;
539 -> 541 ;
542 [label="X[6] <= 5250.025\ngini = 0.142\nsamples = 26\nvalue = [24, 2]"] ;
538 -> 542 ;
543 [label="gini = 0.0\nsamples = 18\nvalue = [18, 0]"] ;
542 -> 543 ;
544 [label="gini = 0.375\nsamples = 8\nvalue = [6, 2]"] ;
542 -> 544 ;
545 [label="gini = 0.0\nsamples = 188\nvalue = [188, 0]"] ;
523 -> 545 ;
546 [label="X[17] <= 0.5\ngini = 0.061\nsamples = 128\nvalue = [124, 4]"] ;
522 -> 546 ;
547 [label="X[6] <= 4421.525\ngini = 0.098\nsamples = 77\nvalue = [73, 4]"] ;
546 -> 547 ;
548 [label="X[1] <= 70.0\ngini = 0.06\nsamples = 65\nvalue = [63, 2]"] ;
547 -> 548 ;
549 [label="X[12] <= 0.5\ngini = 0.032\nsamples = 61\nvalue = [60, 1]"] ;
548 -> 549 ;
550 [label="gini = 0.0\nsamples = 35\nvalue = [35, 0]"] ;
549 -> 550 ;
551 [label="X[1] <= 54.5\ngini = 0.074\nsamples = 26\nvalue = [25, 1]"] ;
549 -> 551 ;
552 [label="gini = 0.0\nsamples = 15\nvalue = [15, 0]"] ;
551 -> 552 ;
553 [label="gini = 0.165\nsamples = 11\nvalue = [10, 1]"] ;
551 -> 553 ;
554 [label="X[20] <= 0.5\ngini = 0.375\nsamples = 4\nvalue = [3, 1]"] ;
548 -> 554 ;
555 [label="gini = 0.0\nsamples = 1\nvalue = [0, 1]"] ;
554 -> 555 ;
556 [label="gini = 0.0\nsamples = 3\nvalue = [3, 0]"] ;
554 -> 556 ;
557 [label="X[1] <= 66.0\ngini = 0.278\nsamples = 12\nvalue = [10, 2]"] ;
547 -> 557 ;
558 [label="X[1] <= 61.5\ngini = 0.444\nsamples = 3\nvalue = [1, 2]"] ;
557 -> 558 ;
559 [label="gini = 0.0\nsamples = 1\nvalue = [1, 0]"] ;
558 -> 559 ;
560 [label="gini = 0.0\nsamples = 2\nvalue = [0, 2]"] ;
558 -> 560 ;
561 [label="gini = 0.0\nsamples = 9\nvalue = [9, 0]"] ;
557 -> 561 ;
562 [label="gini = 0.0\nsamples = 51\nvalue = [51, 0]"] ;
546 -> 562 ;
563 [label="X[5] <= 92.55\ngini = 0.198\nsamples = 9\nvalue = [8, 1]"] ;
521 -> 563 ;
564 [label="X[1] <= 70.5\ngini = 0.444\nsamples = 3\nvalue = [2, 1]"] ;
563 -> 564 ;
565 [label="gini = 0.0\nsamples = 2\nvalue = [2, 0]"] ;
564 -> 565 ;
566 [label="gini = 0.0\nsamples = 1\nvalue = [0, 1]"] ;
564 -> 566 ;
567 [label="gini = 0.0\nsamples = 6\nvalue = [6, 0]"] ;
563 -> 567 ;
568 [label="X[6] <= 6587.925\ngini = 0.254\nsamples = 528\nvalue = [449, 79]"] ;
426 -> 568 ;
569 [label="X[6] <= 6573.475\ngini = 0.341\nsamples = 261\nvalue = [204, 57]"] ;
568 -> 569 ;
570 [label="X[5] <= 99.95\ngini = 0.331\nsamples = 258\nvalue = [204, 54]"] ;
569 -> 570 ;
571 [label="X[6] <= 1761.625\ngini = 0.182\nsamples = 99\nvalue = [89, 10]"] ;
570 -> 571 ;
572 [label="X[37] <= 0.5\ngini = 0.48\nsamples = 5\nvalue = [3, 2]"] ;
571 -> 572 ;
573 [label="gini = 0.0\nsamples = 2\nvalue = [0, 2]"] ;
572 -> 573 ;
574 [label="gini = 0.0\nsamples = 3\nvalue = [3, 0]"] ;
572 -> 574 ;
575 [label="X[5] <= 96.325\ngini = 0.156\nsamples = 94\nvalue = [86, 8]"] ;
571 -> 575 ;
576 [label="X[5] <= 96.175\ngini = 0.263\nsamples = 45\nvalue = [38, 7]"] ;
575 -> 576 ;
577 [label="X[36] <= 0.5\ngini = 0.236\nsamples = 44\nvalue = [38, 6]"] ;
576 -> 577 ;
578 [label="X[1] <= 66.0\ngini = 0.32\nsamples = 30\nvalue = [24, 6]"] ;
577 -> 578 ;
579 [label="gini = 0.285\nsamples = 29\nvalue = [24, 5]"] ;
578 -> 579 ;
580 [label="gini = 0.0\nsamples = 1\nvalue = [0, 1]"] ;
578 -> 580 ;
581 [label="gini = 0.0\nsamples = 14\nvalue = [14, 0]"] ;
577 -> 581 ;
582 [label="gini = 0.0\nsamples = 1\nvalue = [0, 1]"] ;
576 -> 582 ;
583 [label="X[5] <= 99.475\ngini = 0.04\nsamples = 49\nvalue = [48, 1]"] ;
575 -> 583 ;
584 [label="gini = 0.0\nsamples = 38\nvalue = [38, 0]"] ;
583 -> 584 ;
585 [label="X[5] <= 99.575\ngini = 0.165\nsamples = 11\nvalue = [10, 1]"] ;
583 -> 585 ;
586 [label="X[10] <= 0.5\ngini = 0.5\nsamples = 2\nvalue = [1, 1]"] ;
585 -> 586 ;
587 [label="gini = 0.0\nsamples = 1\nvalue = [1, 0]"] ;
586 -> 587 ;
588 [label="gini = 0.0\nsamples = 1\nvalue = [0, 1]"] ;
586 -> 588 ;
589 [label="gini = 0.0\nsamples = 9\nvalue = [9, 0]"] ;
585 -> 589 ;
590 [label="X[5] <= 106.625\ngini = 0.4\nsamples = 159\nvalue = [115, 44]"] ;
570 -> 590 ;
591 [label="X[5] <= 106.075\ngini = 0.444\nsamples = 105\nvalue = [70, 35]"] ;
590 -> 591 ;
592 [label="X[3] <= 2.5\ngini = 0.417\nsamples = 98\nvalue = [69, 29]"] ;
591 -> 592 ;
593 [label="X[1] <= 61.5\ngini = 0.457\nsamples = 82\nvalue = [53, 29]"] ;
592 -> 593 ;
594 [label="X[24] <= 0.5\ngini = 0.436\nsamples = 78\nvalue = [53, 25]"] ;
593 -> 594 ;
595 [label="gini = 0.37\nsamples = 53\nvalue = [40, 13]"] ;
594 -> 595 ;
596 [label="gini = 0.499\nsamples = 25\nvalue = [13, 12]"] ;
594 -> 596 ;
597 [label="gini = 0.0\nsamples = 4\nvalue = [0, 4]"] ;
593 -> 597 ;
598 [label="gini = 0.0\nsamples = 16\nvalue = [16, 0]"] ;
592 -> 598 ;
599 [label="X[3] <= 2.5\ngini = 0.245\nsamples = 7\nvalue = [1, 6]"] ;
591 -> 599 ;
600 [label="gini = 0.0\nsamples = 5\nvalue = [0, 5]"] ;
599 -> 600 ;
601 [label="X[15] <= 0.5\ngini = 0.5\nsamples = 2\nvalue = [1, 1]"] ;
599 -> 601 ;
602 [label="gini = 0.0\nsamples = 1\nvalue = [0, 1]"] ;
601 -> 602 ;
603 [label="gini = 0.0\nsamples = 1\nvalue = [1, 0]"] ;
601 -> 603 ;
604 [label="X[5] <= 109.475\ngini = 0.278\nsamples = 54\nvalue = [45, 9]"] ;
590 -> 604 ;
605 [label="X[11] <= 0.5\ngini = 0.091\nsamples = 21\nvalue = [20, 1]"] ;
604 -> 605 ;
606 [label="X[5] <= 108.1\ngini = 0.375\nsamples = 4\nvalue = [3, 1]"] ;
605 -> 606 ;
607 [label="gini = 0.0\nsamples = 1\nvalue = [0, 1]"] ;
606 -> 607 ;
608 [label="gini = 0.0\nsamples = 3\nvalue = [3, 0]"] ;
606 -> 608 ;
609 [label="gini = 0.0\nsamples = 17\nvalue = [17, 0]"] ;
605 -> 609 ;
610 [label="X[5] <= 109.775\ngini = 0.367\nsamples = 33\nvalue = [25, 8]"] ;
604 -> 610 ;
611 [label="X[6] <= 4219.125\ngini = 0.375\nsamples = 4\nvalue = [1, 3]"] ;
610 -> 611 ;
612 [label="gini = 0.0\nsamples = 1\nvalue = [1, 0]"] ;
611 -> 612 ;
613 [label="gini = 0.0\nsamples = 3\nvalue = [0, 3]"] ;
611 -> 613 ;
614 [label="X[37] <= 0.5\ngini = 0.285\nsamples = 29\nvalue = [24, 5]"] ;
610 -> 614 ;
615 [label="gini = 0.0\nsamples = 10\nvalue = [10, 0]"] ;
614 -> 615 ;
616 [label="X[1] <= 55.5\ngini = 0.388\nsamples = 19\nvalue = [14, 5]"] ;
614 -> 616 ;
617 [label="gini = 0.245\nsamples = 14\nvalue = [12, 2]"] ;
616 -> 617 ;
618 [label="gini = 0.48\nsamples = 5\nvalue = [2, 3]"] ;
616 -> 618 ;
619 [label="gini = 0.0\nsamples = 3\nvalue = [0, 3]"] ;
569 -> 619 ;
620 [label="X[6] <= 8678.625\ngini = 0.151\nsamples = 267\nvalue = [245, 22]"] ;
568 -> 620 ;
621 [label="X[1] <= 69.5\ngini = 0.145\nsamples = 266\nvalue = [245, 21]"] ;
620 -> 621 ;
622 [label="X[6] <= 6889.9\ngini = 0.245\nsamples = 119\nvalue = [102, 17]"] ;
621 -> 622 ;
623 [label="X[6] <= 6623.5\ngini = 0.048\nsamples = 41\nvalue = [40, 1]"] ;
622 -> 623 ;
624 [label="X[6] <= 6614.4\ngini = 0.278\nsamples = 6\nvalue = [5, 1]"] ;
623 -> 624 ;
625 [label="gini = 0.0\nsamples = 5\nvalue = [5, 0]"] ;
624 -> 625 ;
626 [label="gini = 0.0\nsamples = 1\nvalue = [0, 1]"] ;
624 -> 626 ;
627 [label="gini = 0.0\nsamples = 35\nvalue = [35, 0]"] ;
623 -> 627 ;
628 [label="X[6] <= 6985.4\ngini = 0.326\nsamples = 78\nvalue = [62, 16]"] ;
622 -> 628 ;
629 [label="X[5] <= 103.6\ngini = 0.469\nsamples = 8\nvalue = [3, 5]"] ;
628 -> 629 ;
630 [label="gini = 0.0\nsamples = 2\nvalue = [2, 0]"] ;
629 -> 630 ;
631 [label="X[5] <= 111.3\ngini = 0.278\nsamples = 6\nvalue = [1, 5]"] ;
629 -> 631 ;
632 [label="gini = 0.0\nsamples = 5\nvalue = [0, 5]"] ;
631 -> 632 ;
633 [label="gini = 0.0\nsamples = 1\nvalue = [1, 0]"] ;
631 -> 633 ;
634 [label="X[7] <= 0.5\ngini = 0.265\nsamples = 70\nvalue = [59, 11]"] ;
628 -> 634 ;
635 [label="X[20] <= 0.5\ngini = 0.394\nsamples = 37\nvalue = [27, 10]"] ;
634 -> 635 ;
636 [label="X[11] <= 0.5\ngini = 0.498\nsamples = 15\nvalue = [8, 7]"] ;
635 -> 636 ;
637 [label="gini = 0.0\nsamples = 3\nvalue = [3, 0]"] ;
636 -> 637 ;
638 [label="gini = 0.486\nsamples = 12\nvalue = [5, 7]"] ;
636 -> 638 ;
639 [label="X[6] <= 7474.8\ngini = 0.236\nsamples = 22\nvalue = [19, 3]"] ;
635 -> 639 ;
640 [label="gini = 0.0\nsamples = 13\nvalue = [13, 0]"] ;
639 -> 640 ;
641 [label="gini = 0.444\nsamples = 9\nvalue = [6, 3]"] ;
639 -> 641 ;
642 [label="X[23] <= 0.5\ngini = 0.059\nsamples = 33\nvalue = [32, 1]"] ;
634 -> 642 ;
643 [label="X[12] <= 0.5\ngini = 0.245\nsamples = 7\nvalue = [6, 1]"] ;
642 -> 643 ;
644 [label="gini = 0.0\nsamples = 4\nvalue = [4, 0]"] ;
643 -> 644 ;
645 [label="gini = 0.444\nsamples = 3\nvalue = [2, 1]"] ;
643 -> 645 ;
646 [label="gini = 0.0\nsamples = 26\nvalue = [26, 0]"] ;
642 -> 646 ;
647 [label="X[6] <= 7701.075\ngini = 0.053\nsamples = 147\nvalue = [143, 4]"] ;
621 -> 647 ;
648 [label="X[6] <= 7666.425\ngini = 0.117\nsamples = 64\nvalue = [60, 4]"] ;
647 -> 648 ;
649 [label="X[5] <= 107.975\ngini = 0.033\nsamples = 60\nvalue = [59, 1]"] ;
648 -> 649 ;
650 [label="gini = 0.0\nsamples = 58\nvalue = [58, 0]"] ;
649 -> 650 ;
651 [label="X[5] <= 108.3\ngini = 0.5\nsamples = 2\nvalue = [1, 1]"] ;
649 -> 651 ;
652 [label="gini = 0.0\nsamples = 1\nvalue = [0, 1]"] ;
651 -> 652 ;
653 [label="gini = 0.0\nsamples = 1\nvalue = [1, 0]"] ;
651 -> 653 ;
654 [label="X[18] <= 0.5\ngini = 0.375\nsamples = 4\nvalue = [1, 3]"] ;
648 -> 654 ;
655 [label="gini = 0.0\nsamples = 1\nvalue = [1, 0]"] ;
654 -> 655 ;
656 [label="gini = 0.0\nsamples = 3\nvalue = [0, 3]"] ;
654 -> 656 ;
657 [label="gini = 0.0\nsamples = 83\nvalue = [83, 0]"] ;
647 -> 657 ;
658 [label="gini = 0.0\nsamples = 1\nvalue = [0, 1]"] ;
620 -> 658 ;
}
